{
  "input_nodes": 5,
  "hidden_nodes": 8,
  "output_nodes": 2,
  "weight_ih": {
    "rows": 8,
    "cols": 5,
    "data": [
      [
        0.1332541059047325,
        2.187157728881129,
        -0.5803001520750417,
        -0.7185627128296085,
        -1.744170556899395
      ],
      [
        -0.5493510771670991,
        0.2037106780356338,
        -0.47380623967898683,
        -0.9790382916670303,
        2.9239597968379383
      ],
      [
        -2.337892645972744,
        -1.5924864124559113,
        1.0513960317317326,
        0.7520194334138834,
        0.3212472681185184
      ],
      [
        -1.0787976101308276,
        -0.7844718132865302,
        1.5813519982086623,
        0.4827985555326482,
        0.5278363818000127
      ],
      [
        -3.0482832430847777,
        2.4133953745977217,
        -0.20533671879222407,
        -1.7550058321843625,
        -0.49299992134612436
      ],
      [
        0.5425598951886355,
        0.3655814147788795,
        1.128938022954496,
        -0.5713573033389552,
        -1.8012012918048488
      ],
      [
        0.4050971462148134,
        -0.13695523397173504,
        -0.3701004632830861,
        -1.363173702351919,
        1.4164120180220705
      ],
      [
        2.297588622238017,
        -0.7676840998182164,
        0.805363731467732,
        -1.0704289256746935,
        -1.5394865606906163
      ]
    ]
  },
  "weight_ho": {
    "rows": 2,
    "cols": 8,
    "data": [
      [
        -0.4650683313100158,
        -1.7626468985044421,
        0.32872636037268055,
        0.526829344747188,
        2.370135865960252,
        1.4974856585862524,
        0.8790196324114015,
        -1.2129155457817538
      ],
      [
        -1.9501848621130564,
        1.7264618861293108,
        0.45070857267226144,
        2.6337551120063605,
        -3.9033725806527384,
        -2.9210702132683783,
        -1.6280217805519814,
        -2.4510559813763897
      ]
    ]
  },
  "bias_h": {
    "rows": 8,
    "cols": 1,
    "data": [
      [
        -0.7524656177880268
      ],
      [
        1.1209735608341562
      ],
      [
        2.913168427628959
      ],
      [
        -3.73066831032058
      ],
      [
        -0.21106248750229573
      ],
      [
        -0.7165957636281984
      ],
      [
        -0.5931575390473336
      ],
      [
        -0.9452003592998466
      ]
    ]
  },
  "bias_o": {
    "rows": 2,
    "cols": 1,
    "data": [
      [
        0.5105457592065563
      ],
      [
        0.12209556670048989
      ]
    ]
  },
  "lerning_rate": 0.1
}
